svm_type c_svc
kernel_type rbf
gamma 0.0833333
nr_class 7
total_sv 348
rho -0.0734926 0.0627148 -0.233055 -0.101406 -0.250172 -0.294745 0.267163 -0.24074 -0.990871 -0.278325 -2.00445 -1.04015 -0.941263 -0.323539 -0.358043 0.0115321 0.00916632 -0.0135018 0.0368059 0.0594386 0.0413262
label 0 1 2 3 4 5 6
probA -5.8017 -5.14806 -5.18163 -5.1125 -5.2165 -5.33567 -4.49198 -4.85255 -4.89238 -4.36732 -4.85421 -4.89495 -4.65013 -5.33019 -5.41765 -4.85077 -5.35048 -5.34843 -4.77401 -6.14725 -4.89976
probB 2.14542 0.131377 0.14472 0.104012 0.221101 0.342672 0.0756744 -0.1365 0.105185 0.0172956 0.0823042 -0.164171 0.0112628 0.0850013 0.247628 -0.0368609 0.0486861 0.0989392 0.033789 -2.57321 0.404938
nr_sv 17 92 39 74 59 18 49
SV
0 0 0 0.02414864002878379 0 0.3977232054272213 1:1.87032 2:2.1288099 3:1.43337 4:0.94907999 5:2.3698101 6:2.0783999 7:-1.80774 8:1.7029001 9:0.367311 10:0.50352699 11:0.0074186102 12:0.016813301 
0 0 0 0 0 0.005754019337506429 1:1.85079 2:2.0927999 3:1.44769 4:0.97861803 5:2.3697901 6:2.0773001 7:-1.8170201 8:1.71158 9:0.36932299 10:0.51547801 11:0.013446 12:0.034759201 
0 0.2796654630637291 0.1567024948462259 0 0.1062035819546246 0 1:1.42406 2:1.9316601 3:1.93164 4:1.0736901 5:2.5160799 6:2.0894101 7:2.2193 8:1.79873 9:0.410391 10:0.579934 11:0.065839 12:0.056501299 
0.2120840023178603 0 0 0 0 0 1:1.89566 2:1.7520601 3:1.55899 4:1.00936 5:2.4915199 6:2.07095 7:1.90374 8:1.88636 9:0.376073 10:0.59861398 11:0.29145199 12:0.0348249 
0.4723523237020638 0.5849752690241995 0.4642603514426672 0.7437560491114164 0.4937904233742516 0.5901402404139974 1:1.3993599 2:1.92158 3:1.93634 4:1.08601 5:2.4927399 6:2.02301 7:2.2137001 8:1.75854 9:0.41382399 10:0.58560902 11:0.247484 12:0.033316702 
1 0 0 0 0 0 1:2.00734 2:1.66071 3:1.25161 4:0.93885201 5:2.40575 6:1.97877 7:-1.76793 8:1.79371 9:0.350977 10:0.56112301 11:0.0124737 12:0.0125629 
1 0 0 0 0 0 1:1.9451801 2:1.66436 3:1.2921799 4:0.93419099 5:2.3983099 6:1.97585 7:-1.79406 8:1.79181 9:0.352833 10:0.56240201 11:0.0072574602 12:0.0149263 
1 0 0 0 0 0 1:1.9516799 2:1.7095799 3:1.25527 4:0.95106298 5:2.38801 6:1.9681 7:-1.83284 8:1.76412 9:0.34716401 10:0.55747098 11:0.0069138599 12:0.0123177 
1 0 0 0 0 0 1:1.92498 2:1.71119 3:1.28732 4:0.96108502 5:2.38662 6:1.96158 7:-1.84591 8:1.76495 9:0.34652099 10:0.55383599 11:0.0062263301 12:0.017240901 
0.3844336227811205 0 0 0 0 0 1:1.9270999 2:1.7210701 3:1.26676 4:0.95408499 5:2.3898301 6:1.96496 7:-1.84277 8:1.76932 9:0.348281 10:0.55360401 11:0.0082776099 12:0.0115854 
1 0 0 0 0 0 1:2.01244 2:1.67726 3:1.26168 4:0.985811 5:2.4005101 6:1.98449 7:-1.7965 8:1.82337 9:0.30008101 10:0.562621 11:0.0117677 12:0.0289122 
1 0 0 0 0 0 1:1.95708 2:1.6555001 3:1.30302 4:0.98817903 5:2.3864901 6:1.98181 7:-1.7919199 8:1.81673 9:0.29783899 10:0.56502199 11:0.174696 12:0.015675601 
1 0 0 0 0 0 1:1.97535 2:1.64807 3:1.30607 4:0.98877299 5:2.3996899 6:1.98548 7:-1.79336 8:1.8174599 9:0.30114499 10:0.566598 11:0.0205235 12:0.0094386796 
1 0 0 0 0 0 1:1.9795901 2:1.64951 3:1.29045 4:0.98759502 5:2.39554 6:1.98123 7:-1.79602 8:1.81504 9:0.30257401 10:0.565476 11:0.0082991598 12:0.0125899 
0 0.3632693043330667 0.2750358088527158 0.3890400091211841 0.2606376057220803 0.1292630294988723 1:2.11292 2:1.7511899 3:1.06987 4:0.985304 5:2.4279399 6:2.0530801 7:-1.80121 8:1.85453 9:0.31810099 10:0.55071199 11:0.024264701 12:0.040906399 
0 0 0.4560166273384736 0.6507736816959282 0.594196952537125 0.5713138965848999 1:1.5300699 2:1.50782 3:1.57201 4:0.41496101 5:2.37168 6:2.0406301 7:-2.0132201 8:1.8638 9:0.392059 10:0.61983901 11:0.00707808 12:0.022879099 
0 0.5837037160249353 0 0 0 0 1:1.5332 2:1.53062 3:1.5749 4:0.395289 5:2.3784399 6:2.0452199 7:-2.0170801 8:1.84956 9:0.38992101 10:0.61067998 11:0.0155268 12:0.0301659 
-1 0.8890012799270537 0.45982238677728 0 0 0 1:2.06442 2:0.99903703 3:0.96443802 4:1.1534801 5:2.1803999 6:1.43259 7:-1.77435 8:1.68727 9:0.26587799 10:0.398029 11:0.11319 12:0.037311099 
-0 0 0 0 0.09593205426008111 0 1:2.0406201 2:1.13379 3:0.86722201 4:0.97401702 5:-2.0963199 6:1.45811 7:-1.7923 8:1.71044 9:0.30050901 10:0.40887299 11:0.0162587 12:0.035966702 
-1 0 0 0 0.3795061633880355 0 1:2.0264699 2:1.21017 3:0.90248698 4:0.912287 5:2.10904 6:1.4524 7:-1.78623 8:1.72153 9:0.306945 10:0.410485 11:0.057418399 12:0.055052798 
-1 0 0 0 0 0 1:2.0452399 2:1.26289 3:0.91943502 4:0.91196698 5:2.10919 6:1.4562401 7:-1.7594301 8:1.71672 9:0.305646 10:0.410514 11:0.021180199 12:0.019886199 
-1 0 0 0 0 0 1:2.0491099 2:1.26596 3:0.916251 4:0.91183901 5:2.10816 6:1.45532 7:-1.75464 8:1.71549 9:0.30701199 10:0.40938699 11:0.0092204902 12:0.0114017 
-1 0 0 0.02142267209696925 0 0 1:2.0354199 2:1.27429 3:0.92237198 4:0.91004002 5:2.09919 6:1.44705 7:-1.7503999 8:1.71541 9:0.304566 10:0.40445101 11:0.0210911 12:0.023008199 
-0 0 1 0 0 0 1:2.0246799 2:1.11839 3:0.84901899 4:1.08013 5:-2.0877299 6:-1.4460599 7:-1.79263 8:1.65648 9:0.30749199 10:0.39293301 11:0.029193601 12:0.055858001 
-0 0 1 0 0 0 1:2.02426 2:1.14143 3:0.832578 4:1.1008101 5:-2.09026 6:-1.45006 7:-1.79714 8:1.63304 9:0.31040901 10:0.392555 11:0.0183181 12:0.036403701 
-0 0 1 0 0 0 1:2.01947 2:1.14526 3:0.82010198 4:1.10325 5:-2.0877099 6:-1.44923 7:-1.8026201 8:1.62131 9:0.310799 10:0.39316499 11:0.0096241003 12:0.0133421 
-0 0.756292029775663 1 0 0 0 1:2.0046899 2:1.06541 3:0.81236202 4:1.13678 5:-2.0744801 6:-1.4303499 7:-1.80989 8:1.6309 9:0.306097 10:0.39101899 11:0.0170453 12:0.027117999 
-0 0 1 1 0 0 1:1.98417 2:1.10112 3:0.82454902 4:1.08451 5:-2.04444 6:-1.37509 7:-1.81037 8:1.61286 9:0.29360399 10:0.38176301 11:0.056651302 12:0.10914 
-0 0 1 1 0 0 1:1.94304 2:0.96561199 3:0.87461001 4:1.1575201 5:-2.0239401 6:-1.3346699 7:-1.80433 8:1.66535 9:0.28428599 10:0.379347 11:0.043741699 12:0.0575293 
-0 0 0 1 0 0.706338387917022 1:1.92256 2:0.96399999 3:0.91154701 4:1.16292 5:-2.0272701 6:1.33425 7:-1.79676 8:1.68139 9:0.28463301 10:0.38266599 11:0.030290799 12:0.038165402 
-0 0 0 1 0 0 1:1.92444 2:0.96874499 3:0.92665499 4:1.15948 5:-2.0418899 6:1.3627501 7:-1.79378 8:1.6867599 9:0.28816301 10:0.383737 11:0.0266847 12:0.075117998 
-0 0 0 0 1 1 1:1.9748 2:1.1538301 3:0.90993899 4:0.93847799 5:-2.0804999 6:1.4624 7:-1.7858599 8:1.70582 9:0.308061 10:0.40436 11:0.0149135 12:0.0236318 
-0 0 0 0 1 1 1:1.9798501 2:1.14131 3:0.896851 4:0.93888497 5:-2.0733299 6:1.45075 7:-1.78618 8:1.6951801 9:0.30612999 10:0.402089 11:0.0092708804 12:0.0150037 
-0 0 0 0 0 1 1:1.98375 2:1.1543 3:0.88795 4:0.949287 5:-2.06145 6:1.41588 7:-1.78342 8:1.67974 9:0.301292 10:0.39627099 11:0.024379799 12:0.0419298 
-0 0 0 1 0 1 1:1.95354 2:1.1378 3:0.90034002 4:0.99983501 5:-2.0443001 6:1.39817 7:-1.7855999 8:1.65126 9:0.295928 10:0.390443 11:0.0240114 12:0.0420448 
-0 0 1 0 0 0 1:1.95471 2:1.11536 3:0.90299398 4:1.06066 5:-2.05797 6:-1.40374 7:-1.7911201 8:1.64293 9:0.29566801 10:0.38814899 11:0.036502 12:0.0487893 
-0 0 1 0 0 0 1:1.9615901 2:1.13037 3:0.87506098 4:1.0736901 5:-2.05369 6:-1.40777 7:-1.8009501 8:1.6355799 9:0.297537 10:0.390816 11:0.043587402 12:0.064417101 
-0 0 1 0 0 0 1:1.98616 2:0.87680399 3:0.84486997 4:1.22989 5:-2.0597501 6:-1.39466 7:-1.8079799 8:1.65696 9:0.29383799 10:0.39172399 11:0.0153216 12:0.020704901 
-0 0 1 0 0 0 1:1.9878 2:1.0167201 3:0.83662403 4:1.11809 5:-2.05282 6:-1.38632 7:-1.81107 8:1.63029 9:0.28817499 10:0.398056 11:0.0257331 12:0.033201098 
-0 0 1 0 0 0 1:1.98522 2:1.09378 3:0.86519498 4:1.05067 5:-2.0654099 6:-1.40036 7:-1.80513 8:1.6404001 9:0.28692999 10:0.40304399 11:0.035240199 12:0.056765102 
-0 0 1 0 0 0 1:1.94679 2:0.95653898 3:0.99184602 4:1.23321 5:-2.08371 6:-1.34253 7:-1.80677 8:1.53708 9:0.224291 10:0.38315701 11:0.094130702 12:0.078360699 
-0 0 0 0 0 1 1:2.03016 2:1.2672499 3:0.98376501 4:0.96922499 5:-2.12064 6:1.45055 7:-1.78755 8:1.64626 9:0.229408 10:0.38087401 11:0.042263299 12:0.0185892 
-0 0 0 0 0 1 1:2.0199699 2:1.31459 3:1.00209 4:0.89370501 5:-2.11287 6:1.4659899 7:-1.77652 8:1.6875401 9:0.23239601 10:0.37710699 11:0.0620916 12:0.0075169299 
-0 0 0 0 0 1 1:2.01598 2:1.32634 3:1.00607 4:0.87523502 5:-2.12729 6:1.46735 7:-1.78229 8:1.69436 9:0.23475599 10:0.37698901 11:0.077961899 12:0.0086938199 
-0 0 0 0 0 1 1:1.98403 2:1.3382699 3:0.99464297 4:0.872446 5:-2.1149399 6:1.46892 7:-1.80444 8:1.69512 9:0.22934701 10:0.37473401 11:0.096525699 12:0.0095162699 
-0 0 0 0 0 1 1:1.95671 2:1.33639 3:0.97983003 4:0.86504698 5:-2.0820401 6:1.46099 7:-1.81077 8:1.69805 9:0.229312 10:0.37392399 11:0.0207281 12:0.0136233 
-0 0 0 0 0 1 1:1.9685 2:1.34182 3:0.96256697 4:0.827775 5:-2.09202 6:1.45371 7:-1.8152 8:1.7116801 9:0.230377 10:0.37416899 11:0.034164298 12:0.0124119 
-0 0 0 0 1 0 1:1.98579 2:1.21402 3:0.95069301 4:0.86380303 5:-2.1114099 6:1.4572099 7:-1.81629 8:1.77897 9:0.234717 10:0.37599799 11:0.0820195 12:0.0145625 
-0 0 0 0 1 0 1:1.96447 2:1.1985101 3:0.94129997 4:0.86173898 5:-2.0832901 6:1.46034 7:-1.8190399 8:1.78622 9:0.230913 10:0.37698001 11:0.0157851 12:0.0119853 
-0 0 0 0 0.3691567560517428 1 1:1.9525599 2:1.3274 3:0.97807002 4:0.89644301 5:-2.0941 6:1.4872299 7:-1.80937 8:1.6922899 9:0.238052 10:0.38229799 11:0.0180343 12:0.036609001 
-0 0 0 0 0 1 1:2.0625401 2:1.32021 3:1.08023 4:0.98237503 5:-2.1563499 6:1.49202 7:-1.68934 8:1.64434 9:0.27797699 10:0.38480899 11:0.0331879 12:0.016333301 
-0 0 0 0 0 1 1:2.0420599 2:1.31206 3:1.09306 4:1.05021 5:-2.1324999 6:1.52416 7:-1.6798 8:1.6251301 9:0.277758 10:0.391846 11:0.040440898 12:0.054876901 
-0 0 0 0 0 1 1:2.02266 2:1.30581 3:1.09431 4:1.08757 5:-2.1126299 6:1.5443701 7:-1.67711 8:1.6195199 9:0.26785699 10:0.39238799 11:0.029408799 12:0.0145385 
-0 0 0 0 0 1 1:2.0218899 2:1.29881 3:1.0887901 4:1.10422 5:-2.11782 6:1.543 7:-1.67759 8:1.61578 9:0.26583001 10:0.39128199 11:0.0196833 12:0.0070839999 
-0 0 0 0 0 1 1:2.0158701 2:1.29953 3:1.0865 4:1.11045 5:-2.1144099 6:1.53693 7:-1.67986 8:1.60914 9:0.264752 10:0.38889799 11:0.0153388 12:0.0071259402 
-0 0 0 0 0 1 1:2.01367 2:1.30115 3:1.09294 4:1.09682 5:-2.11937 6:1.53405 7:-1.6811301 8:1.61147 9:0.26939401 10:0.39146399 11:0.018068399 12:0.0196945 
-0.07805508561947602 0 0 0 0 1 1:2.0306301 2:1.33193 3:1.05118 4:0.98890299 5:-2.11796 6:1.55194 7:-1.69166 8:1.65137 9:0.26687601 10:0.39153999 11:0.0196144 12:0.0246075 
-0.4702260835327517 0 0 0 1 1 1:2.0222499 2:1.38252 3:0.95786399 4:0.87537402 5:-2.1143601 6:1.55897 7:-1.7607599 8:1.69248 9:0.260616 10:0.386269 11:0.0144531 12:0.0136716 
-0 0 0 0 1 1 1:2.0238199 2:1.39113 3:0.94792998 4:0.87253201 5:-2.1141901 6:1.5504 7:-1.77088 8:1.69275 9:0.260104 10:0.382451 11:0.0188499 12:0.0144487 
-0 0 0 0 1 1 1:2.0332301 2:1.38942 3:0.95350897 4:0.89308602 5:-2.1265299 6:1.55259 7:-1.7704901 8:1.68303 9:0.26024699 10:0.38257301 11:0.0242793 12:0.0092524504 
-0 0 0 0 0 1 1:2.0411799 2:1.35209 3:0.98857599 4:0.959032 5:-2.12991 6:1.5530699 7:-1.74456 8:1.66034 9:0.26606601 10:0.386136 11:0.022257 12:0.010779 
-0 0 0 0 0 1 1:2.04965 2:1.3186001 3:1.05682 4:1.0337 5:-2.1396201 6:1.5344 7:-1.69727 8:1.63269 9:0.27990401 10:0.38394299 11:0.033495501 12:0.024935599 
-0 0 0 0 0 1 1:2.0397 2:1.29721 3:1.08006 4:1.06528 5:-2.1391301 6:1.53422 7:-1.68957 8:1.61708 9:0.27962899 10:0.387759 11:0.0348191 12:0.016291499 
-0 0 0 0 0 0.2210979156949311 1:2.0292799 2:1.29228 3:1.0239 4:0.96013999 5:-2.1264801 6:1.54309 7:-1.72563 8:1.6705101 9:0.25524801 10:0.39351699 11:0.0237903 12:0.0119383 
-0 0 0 0 0 1 1:2.01846 2:1.2955 3:1.0084701 4:0.96614999 5:-2.1233101 6:1.52964 7:-1.74385 8:1.66655 9:0.25169799 10:0.38987699 11:0.0145079 12:0.0155936 
-0 0 0 0 0 1 1:1.97363 2:1.28311 3:1.02371 4:0.98766798 5:-2.09761 6:1.5111001 7:-1.75799 8:1.6556 9:0.246224 10:0.387548 11:0.018719399 12:0.027176701 
-0 0 0 0 0 1 1:1.97738 2:1.25984 3:1.03282 4:1.02657 5:-2.0917301 6:1.47426 7:-1.7498 8:1.62784 9:0.24229699 10:0.38207 11:0.018749399 12:0.036976501 
-0 0.7223607193411602 0 0 0 0 1:1.91041 2:1.26564 3:1.07103 4:1.04752 5:-2.09253 6:-1.5322 7:-1.7706 8:1.62754 9:0.251192 10:0.390865 11:0.018599801 12:0.0133339 
-0 1 0 0 0 0 1:1.91326 2:1.28057 3:1.02051 4:1.06942 5:-2.0731101 6:-1.51693 7:-1.8014899 8:1.6059099 9:0.248597 10:0.384083 11:0.029676 12:0.022449899 
-0 1 0 0 0 0 1:1.93156 2:1.27931 3:1.00204 4:1.05863 5:-2.0850101 6:-1.5173399 7:-1.8009599 8:1.60912 9:0.251434 10:0.384648 11:0.077237703 12:0.0098117599 
-0 0.218084714358625 1 0 0 0 1:1.95055 2:1.31876 3:0.93367797 4:0.92646599 5:-2.0803101 6:-1.51239 7:-1.8146501 8:1.66536 9:0.25277999 10:0.38553599 11:0.021425899 12:0.0146361 
-0.01980164536301026 0 0 0 0 0 1:1.95803 2:1.26524 3:1.0664901 4:1.0700099 5:-2.1284201 6:-1.50544 7:-1.7871799 8:1.60646 9:0.243641 10:0.38892701 11:0.31473899 12:0.0115168 
-0.1068142750561547 0 0 0 0 0 1:1.94143 2:1.2673301 3:1.07496 4:1.07508 5:-2.1249499 6:-1.50869 7:-1.78501 8:1.60649 9:0.27726099 10:0.38936299 11:0.29684699 12:0.0117201 
-0 1 1 0 0 0 1:1.8861901 2:1.2566299 3:1.01407 4:1.01217 5:-2.06499 6:-1.51878 7:-1.79163 8:1.63462 9:0.274297 10:0.39540699 11:0.044555899 12:0.019370699 
-0 1 1 1 0 0 1:1.80756 2:1.2324899 3:1.0108 4:1.00021 5:-2.0107701 6:-1.50565 7:-1.79029 8:1.6425 9:0.29665899 10:0.40153599 11:0.054687299 12:0.021485301 
-0 1 1 1 0 0 1:1.81662 2:1.0409499 3:1.01445 4:1.11711 5:-2.0116799 6:-1.50436 7:-1.77859 8:1.71725 9:0.297961 10:0.40041399 11:0.018739499 12:0.0151176 
-0 1 1 1 0 0 1:1.82648 2:1.17399 3:1.022 4:1.02841 5:-2.0227599 6:-1.50089 7:-1.77811 8:1.65174 9:0.29374599 10:0.40325701 11:0.0169347 12:0.0109407 
-0 0 1 1 0 0 1:1.87462 2:1.15545 3:1.0439399 4:1.04219 5:-2.04514 6:-1.4701101 7:-1.76547 8:1.63274 9:0.27503899 10:0.40221399 11:0.046283498 12:0.0280862 
-0 0 1 0 0 0 1:1.87235 2:1.23385 3:1.04998 4:0.99812198 5:-2.0478301 6:-1.50431 7:-1.78245 8:1.64632 9:0.25681099 10:0.395904 11:0.0107089 12:0.0137894 
-0 0 1 0 0 0 1:1.87738 2:1.23333 3:1.04302 4:0.98978603 5:-2.05004 6:-1.5026 7:-1.78037 8:1.65044 9:0.25950101 10:0.39502501 11:0.0155086 12:0.0075725098 
-0 0 0 1 0 0 1:1.87135 2:1.23528 3:1.05959 4:1.04205 5:-2.0464101 6:-1.48973 7:-1.77373 8:1.6126 9:0.26161301 10:0.39154801 11:0.0158455 12:0.0184207 
-0 0 0 0.9694568923748266 0 0 1:1.86365 2:1.21315 3:1.0995899 4:1.0985 5:-2.0487001 6:-1.47663 7:-1.76272 8:1.5798301 9:0.25786701 10:0.390917 11:0.0114328 12:0.0063275299 
-0 0 0 1 0 0 1:1.86154 2:1.21214 3:1.09648 4:1.10084 5:-2.04829 6:-1.47365 7:-1.77226 8:1.57898 9:0.25787899 10:0.38821599 11:0.0153753 12:0.0125326 
-0 0 0 1 0 0 1:1.86278 2:1.23821 3:1.08452 4:1.05711 5:-2.04163 6:-1.47543 7:-1.76998 8:1.59416 9:0.25641799 10:0.387667 11:0.0267899 12:0.0212087 
-0 0 0 1 0 1 1:1.85612 2:1.28356 3:1.0903701 4:0.97749501 5:-2.0376899 6:1.49158 7:-1.75472 8:1.6217099 9:0.261112 10:0.39113599 11:0.018850701 12:0.0122684 
-0 0 0 1 0 0 1:1.86879 2:1.30171 3:1.07311 4:0.979662 5:-2.0440099 6:-1.5051 7:-1.75713 8:1.6243 9:0.260984 10:0.39033201 11:0.0317178 12:0.0196524 
-0 1 0 1 0 0 1:1.86026 2:1.30387 3:1.04592 4:1.01126 5:-2.05462 6:-1.51092 7:-1.79286 8:1.61321 9:0.264956 10:0.38723999 11:0.025055099 12:0.028992999 
-0 0 1 1 0 0 1:1.85533 2:1.26993 3:1.05651 4:1.05441 5:-2.0562899 6:-1.49591 7:-1.79802 8:1.59553 9:0.26385999 10:0.386296 11:0.020896699 12:0.020411201 
-0 0 0 1 0 0 1:1.8834701 2:1.26053 3:1.06828 4:1.0776 5:-2.0539 6:-1.4762599 7:-1.76785 8:1.57727 9:0.26443899 10:0.38349801 11:0.0229591 12:0.0230825 
-0 0 0 1 0 0 1:1.87193 2:1.25921 3:1.0905401 4:1.08266 5:-2.04563 6:-1.4612499 7:-1.75808 8:1.56062 9:0.25882101 10:0.38088 11:0.019708799 12:0.0185322 
-0 0 0 1 0 0 1:1.8825999 2:1.30203 3:1.06295 4:1.00594 5:-2.0530901 6:-1.5013601 7:-1.76873 8:1.60491 9:0.262036 10:0.38664901 11:0.0088156601 12:0.0311944 
-0 1 0.9666777334533866 1 0 0 1:1.881 2:1.3249201 3:1.00753 4:0.94232202 5:-2.05653 6:-1.51118 7:-1.7934099 8:1.63919 9:0.26567 10:0.387153 11:0.0250907 12:0.013249 
-0 0.264214747423788 1 0 0 0 1:1.89072 2:1.2399 3:1.01164 4:1.01531 5:-2.0977001 6:-1.4966201 7:-1.80235 8:1.6217 9:0.28266799 10:0.39777499 11:0.0571054 12:0.031786099 
-0 0 1 0 0 0 1:1.90455 2:1.14958 3:1.02273 4:1.07744 5:-2.1359899 6:-1.46498 7:-1.8072701 8:1.59892 9:0.29242501 10:0.407065 11:0.031738002 12:0.031692401 
-0 0 1 0 0 0 1:1.94366 2:1.08776 3:1.0203201 4:1.08201 5:-2.1491899 6:-1.44576 7:-1.79537 8:1.59843 9:0.28739101 10:0.416354 11:0.0174817 12:0.020698501 
-0 0 1 0 0 0 1:1.87055 2:1.13173 3:1.0174 4:1.01222 5:-2.03457 6:-1.43145 7:-1.78458 8:1.58011 9:0.242341 10:0.41224599 11:0.112959 12:0.027610701 
-0 0 0 1 0 0.9691169425440382 1:1.88791 2:1.20579 3:1.00801 4:1.0005701 5:-2.0121901 6:-1.41632 7:-1.73831 8:1.54377 9:0.259931 10:0.393392 11:0.018914601 12:0.034461498 
-0 0 0 1 0 0 1:1.913 2:1.20193 3:1.00553 4:1.04324 5:-2.0325201 6:-1.41719 7:-1.73536 8:1.5396301 9:0.25899899 10:0.391563 11:0.020192901 12:0.038104799 
-0 0 0 1 0 1 1:1.89141 2:1.20216 3:1.04003 4:0.99596298 5:-2.04808 6:1.45776 7:-1.74657 8:1.57605 9:0.25819501 10:0.404241 11:0.044093799 12:0.0900122 
-1 0 0 1 0 1 1:1.90753 2:1.21495 3:1.0343699 4:0.95207298 5:2.0411301 6:1.45288 7:-1.73787 8:1.60649 9:0.25927901 10:0.401961 11:0.0101224 12:0.018217901 
-0 0 0 1 0 1 1:1.91795 2:1.21901 3:1.01851 4:0.967619 5:-2.0378201 6:1.45131 7:-1.73671 8:1.59472 9:0.261033 10:0.402055 11:0.021359799 12:0.037545901 
-0 0 0 1 0 0 1:1.90975 2:1.2429301 3:1.00376 4:0.97561699 5:-2.0355899 6:-1.44678 7:-1.7546 8:1.57411 9:0.261363 10:0.39853099 11:0.024414601 12:0.037005302 
-0 0 0 1 0 1 1:1.90532 2:1.09421 3:1.03376 4:1.0039001 5:-2.01665 6:1.3414 7:-1.7313401 8:1.5624501 9:0.238851 10:0.405572 11:0.034865301 12:0.061347499 
-0 0 0 0 0 1 1:1.93692 2:1.18378 3:1.03355 4:0.97513402 5:-2.0573399 6:1.4496 7:-1.7355601 8:1.60446 9:0.246261 10:0.40900201 11:0.0246599 12:0.082908303 
-0.3939728592296518 0 0 0 0 0 1:1.9310499 2:1.27343 3:1.02229 4:0.942949 5:-2.11601 6:-1.54906 7:-1.78245 8:1.61756 9:0.26731399 10:0.41565299 11:0.018783201 12:0.0161577 
-1 0 0 0 0 1 1:1.9315 2:1.16899 3:1.01415 4:1.02693 5:2.0829201 6:1.4845001 7:-1.77372 8:1.59579 9:0.256291 10:0.40458399 11:0.0167659 12:0.032015201 
-1 0 0 0 0 0.09167215760437046 1:1.93185 2:1.16231 3:1.01735 4:1.02698 5:2.07939 6:1.48637 7:-1.76871 8:1.60297 9:0.256181 10:0.405761 11:0.0095282197 12:0.0162852 
-0 0 0 0.1719485874966495 0 1 1:1.89244 2:1.11494 3:1.0601 4:1.10496 5:-2.0595601 6:1.47856 7:-1.7498699 8:1.68487 9:0.25630999 10:0.40159601 11:0.032407999 12:0.039372601 
-0 0 1 0 0 0 1:1.89888 2:1.08789 3:1.06284 4:1.1263 5:-2.05651 6:-1.4766099 7:-1.74617 8:1.68372 9:0.25674799 10:0.399598 11:0.032113001 12:0.024735 
-0 -0 0 0 0 0.1486819967150722 1:1.34894 2:0.73075598 3:0.265001 4:2.13481 5:-2.10991 6:-1.99494 7:-1.8499399 8:-2.3965499 9:0.61679202 10:0.46644199 11:0.0085199401 12:0.54337198 
-0 -0 0 0.2428074598456958 0 0 1:1.37412 2:1.42149 3:0.305334 4:1.17372 5:-2.1205299 6:-2.20766 7:-1.87032 8:2.16185 9:0.58824301 10:0.402125 11:0.018500701 12:0.75858402 
-0 -1 1 1 0.2908557576114109 0 1:1.38599 2:1.5963399 3:0.33754 4:0.94620198 5:-2.12062 6:-2.2030001 7:-1.86924 8:2.1227 9:0.587363 10:0.39570299 11:0.011213 12:0.0509765 
-0 -0 1 0 0 0 1:1.32028 2:0.739389 3:0.27266899 4:1.8200001 5:-2.1073999 6:-2.09095 7:-1.8562 8:2.3254001 9:0.61183 10:0.456581 11:0.045896199 12:0.36798301 
-0.349023087481092 -0 0 0 0.2442841132355031 0.1647156488306354 1:1.3747 2:1.28925 3:0.20442399 4:1.52005 5:-2.099 6:-2.20802 7:-1.83029 8:2.2995601 9:0.617414 10:0.37553 11:0.021544 12:1.37107 
-0 -0 1 0 0 0 1:1.34376 2:0.95601398 3:0.36843699 4:1.82292 5:-2.10428 6:-2.15921 7:-1.85405 8:2.3095701 9:0.61616498 10:0.378396 11:0.0102116 12:0.076503299 
-0 -0 0 1 0 0 1:1.3523901 2:1.4567699 3:0.39650199 4:1.16204 5:-2.10149 6:-2.16715 7:-1.85484 8:2.22861 9:0.61383802 10:0.38895899 11:0.017394399 12:0.293733 
-0 -0 1 0 0 0 1:1.34267 2:1.3940001 3:0.430325 4:1.23569 5:-2.09849 6:-2.1845701 7:-1.85342 8:2.2402501 9:0.61477202 10:0.381457 11:0.0189778 12:0.048978101 
-0 -0 1 0 0 0 1:1.33108 2:1.07349 3:0.3488 4:1.7714 5:-2.0963399 6:-2.0975399 7:-1.84723 8:2.2843101 9:0.61705899 10:0.420288 11:0.0198975 12:0.38768101 
-0 -1 0.2917563526094938 0 0 0 1:1.3879 2:0.80254102 3:0.31194201 4:1.9648499 5:-2.0984399 6:-2.1073301 7:-1.8283401 8:-2.3498199 9:0.61567098 10:0.429616 11:0.020796601 12:0.39020401 
-0 -0 1 0 0 0 1:1.34797 2:0.73734999 3:0.403467 4:1.76114 5:-2.09867 6:-2.0679801 7:-1.85037 8:2.27247 9:0.61577201 10:0.47439799 11:0.0128484 12:0.54598498 
-0 -0 1 0 0 0 1:1.36068 2:0.80955499 3:0.32452899 4:1.81804 5:-2.10499 6:-2.1814699 7:-1.8397 8:2.34987 9:0.61330801 10:0.380914 11:0.031884499 12:0.52344602 
-0 -0 1 0 0 0 1:1.34338 2:1.09181 3:0.38936901 4:1.56214 5:-2.1046801 6:-2.18507 7:-1.84902 8:2.3103199 9:0.61278301 10:0.388441 11:0.030399 12:0.27125299 
-0 -0 1 0 0 0 1:1.37657 2:1.2391 3:0.48211199 4:1.39516 5:-2.0966599 6:-2.12726 7:-1.84305 8:2.22205 9:0.60792798 10:0.382664 11:0.028078901 12:0.417624 
-0 -1 1 1 0 0 1:1.42489 2:1.41233 3:0.54654801 4:1.27212 5:-2.0762899 6:-2.0852599 7:-1.8220201 8:2.1660399 9:0.59771901 10:0.38696301 11:0.027628001 12:0.15918 
-0 -0 1 0 0 0 1:1.51357 2:1.17002 3:0.52418798 4:1.59618 5:-2.0931599 6:-2.17383 7:-1.8164001 8:2.2477901 9:0.60180402 10:0.368761 11:0.075811297 12:0.150629 
-0 -1 1 1 0 0 1:1.55601 2:1.26522 3:0.75493002 4:1.48148 5:-2.0520201 6:-2.1050999 7:-1.78575 8:2.1914799 9:0.58466202 10:0.36848101 11:0.145418 12:0.155948 
-0 -1 1 1 0 0 1:1.50023 2:1.33408 3:0.80465102 4:1.40896 5:-2.01862 6:-2.10586 7:-1.77381 8:2.1902201 9:0.57494903 10:0.365136 11:0.075472198 12:0.12575001 
-0 -1 0.657109196843644 1 0 0 1:1.4810801 2:1.25449 3:0.86038601 4:1.64123 5:-1.98654 6:-2.1721001 7:-1.74876 8:2.2189801 9:0.56540102 10:0.35080999 11:0.0319857 12:0.098179601 
-0 -0.8243010944675108 0 0 0 0 1:1.45889 2:1.24572 3:0.81502599 4:1.68432 5:-1.97557 6:-2.20051 7:-1.74516 8:2.23317 9:0.56287801 10:0.339472 11:0.0311391 12:0.222995 
-0 -1 1 1 0 0.923575019045636 1:1.45855 2:1.39069 3:0.89024198 4:1.37368 5:-1.98861 6:-2.1128399 7:-1.75437 8:2.1631601 9:0.56330198 10:0.35451701 11:0.073996298 12:0.118486 
-0 -1 1 1 0 0 1:1.46164 2:1.36089 3:0.88134199 4:1.31631 5:-1.99098 6:-2.12602 7:-1.7529401 8:2.17098 9:0.563824 10:0.35571 11:0.090957001 12:0.217746 
-0 -0 1 0 0 0 1:1.36675 2:1.33806 3:0.478585 4:1.4665 5:-2.17349 6:-2.2024 7:-1.93363 8:2.1957901 9:0.62042302 10:0.38490099 11:0.068130098 12:0.094082601 
-0 -0 0 1 0 0 1:1.21014 2:1.6664799 3:0.59379202 4:0.98285198 5:-2.12779 6:-2.2442801 7:-1.9218301 8:2.1902299 9:0.59435302 10:0.39337799 11:0.129391 12:0.21431699 
-0.3012668827605049 -0.2459690137735424 0 1 0.1239025319176017 0 1:1.25614 2:1.66624 3:0.54503399 4:0.958808 5:-2.1212399 6:-2.23546 7:-1.91004 8:2.1903999 9:0.590828 10:0.39179501 11:0.0429467 12:0.0348133 
-0 -0 1 0 0 0 1:1.2452 2:0.99377197 3:0.48907501 4:1.75692 5:-2.1126499 6:-2.16926 7:-1.89486 8:2.32372 9:0.58632302 10:0.405094 11:0.023366099 12:0.31059101 
-0.3192540263526636 -0 1 0 0.3228891944362545 0.00490854114631626 1:1.20683 2:0.497578 3:0.53823203 4:1.82061 5:-2.0899799 6:-2.1001699 7:-1.89082 8:2.2964799 9:0.58742398 10:0.59527099 11:0.0106517 12:0.016096801 
-0 -0 1 0 0 0.113887569307688 1:1.2140501 2:0.897843 3:0.41849601 4:1.75077 5:-2.1147399 6:-2.01267 7:-1.93987 8:2.3018601 9:0.58830202 10:0.44284201 11:0.0572697 12:0.205157 
-0 -0 1 1 0 0 1:1.34612 2:1.51714 3:0.236202 4:1.30357 5:-2.1167099 6:-2.1694901 7:-1.86414 8:2.0739999 9:0.61241198 10:0.35462001 11:0.0101503 12:0.137545 
-0 -0.439859329873152 1 1 0 0 1:1.36578 2:1.53448 3:0.29843199 4:1.23373 5:-2.1182201 6:-2.14941 7:-1.8637201 8:2.0548899 9:0.61357403 10:0.35510901 11:0.0155383 12:0.0413354 
-0 -0 0 0.1972616724450353 0 0 1:1.2704 2:1.49099 3:0.34014499 4:1.1429501 5:-2.11344 6:-2.2151899 7:-1.88123 8:2.19467 9:0.6056 10:0.38953599 11:0.0096065802 12:0.0450988 
-0.161179173008203 -0 0 0 0.09506203575112446 0 1:1.28283 2:0.613437 3:0.265315 4:2.12925 5:-2.1371701 6:-2.095 7:-1.8933901 8:-2.4477201 9:0.60983098 10:0.44839999 11:0.0125595 12:0.46029201 
-0 -0 0.7849439628887195 0 0 0 1:1.26808 2:0.86784703 3:0.253479 4:1.79985 5:-2.1379199 6:-2.16642 7:-1.90794 8:-2.34851 9:0.60790497 10:0.432827 11:0.0179007 12:0.319738 
-0 -0 0 0.2063406022753198 0 0 1:1.27355 2:1.17951 3:0.266435 4:1.7896399 5:-2.14205 6:-2.2883899 7:-1.91144 8:-2.3294499 9:0.60775 10:0.35961401 11:0.023204301 12:0.332986 
-0.3862860555243522 -0.3398240527120846 0 0.2229864996755596 0.2877189265738236 0.287517678861823 1:1.32481 2:1.2147599 3:0.25433299 4:1.9291 5:-2.12871 6:-2.0874801 7:-1.86958 8:-2.41643 9:0.60523897 10:0.34608999 11:0.0134644 12:0.0210224 
-0.2946045273191148 -0 0 0 0.2304772450525512 0.1940852876330987 1:1.26563 2:0.843503 3:0.29639801 4:1.84349 5:-2.1169701 6:-2.15358 7:-1.88502 8:-2.35497 9:0.60752499 10:0.42818701 11:0.0149619 12:1.0468301 
-0 -0 0 0.7543787635791503 0 0 1:1.24839 2:1.04747 3:0.32020301 4:1.83455 5:-2.1221499 6:-2.1703801 7:-1.89305 8:-2.35005 9:0.60870302 10:0.38226801 11:0.0088710999 12:0.280954 
-0 -1 1 1 0 0 1:1.34644 2:1.56671 3:0.48869801 4:1.20423 5:-2.12798 6:-2.13779 7:-1.89158 8:2.13902 9:0.61117202 10:0.32486701 11:0.0153936 12:0.034045499 
-0 -0 0 1 0 0 1:1.32216 2:1.62941 3:0.441174 4:1.27226 5:-2.13322 6:-2.1814401 7:-1.90599 8:2.14059 9:0.61169797 10:0.32312199 11:0.00579589 12:0.093907103 
-0 -0 -0 0 0 0.06780215180114815 1:1.69357 2:0.78405601 3:0.394023 4:1.30984 5:-2.1646199 6:-1.47225 7:-1.96962 8:1.85823 9:0.46645999 10:0.35168099 11:0.012641 12:0.098886602 
-0 -1 -0 0 0 0 1:1.7449 2:0.88706702 3:0.42620099 4:1.14337 5:-2.1568601 6:-1.51688 7:-1.96024 8:1.87177 9:0.46307001 10:0.361931 11:0.0114553 12:0.119531 
-0 -1 -0 0 0 0 1:1.7249 2:0.929097 3:0.417348 4:1.02631 5:-2.15995 6:-1.5273499 7:-1.97375 8:1.87985 9:0.463687 10:0.378041 11:0.0134239 12:0.21132299 
-0 -1 -0 0 0 0 1:1.74833 2:0.80531198 3:0.44204 4:1.13027 5:-2.16274 6:-1.50291 7:-1.96707 8:1.8653899 9:0.45968699 10:0.38392201 11:0.0149536 12:0.207707 
-0 -1 -0 0 0 0 1:1.73037 2:0.90453798 3:0.429315 4:1.1463799 5:-2.1559899 6:-1.51653 7:-1.97277 8:1.86129 9:0.45987201 10:0.37889799 11:0.01365 12:0.139622 
-0 -1 -0 0 0 0 1:1.72778 2:0.83474302 3:0.46960801 4:1.12288 5:-2.15328 6:-1.5019799 7:-1.97005 8:1.86367 9:0.45874801 10:0.38063499 11:0.0155079 12:0.037786499 
-0 -1 -0 0 0 0 1:1.74253 2:0.89261597 3:0.471755 4:1.16117 5:-2.15361 6:-1.51227 7:-1.9667701 8:1.86146 9:0.458592 10:0.36891499 11:0.0079858303 12:0.0936445 
-0 -1 -0 0 0 0 1:1.75587 2:0.84857899 3:0.469818 4:1.3608 5:-2.1561201 6:-1.5154999 7:-1.96649 8:1.83464 9:0.456682 10:0.3488 11:0.0149389 12:0.22691999 
-0 -0.4282604298007288 -0 0 0 0 1:1.738 2:0.871122 3:0.45265499 4:1.44224 5:-2.1561999 6:-1.54041 7:-1.97295 8:1.82025 9:0.456476 10:0.33584899 11:0.0076438701 12:0.079953603 
-0 -1 -0 0 0 0 1:1.77573 2:0.92671502 3:0.42574099 4:1.10269 5:-2.1628399 6:-1.52762 7:-1.96178 8:1.8636 9:0.461503 10:0.38518 11:0.0137321 12:0.0792941 
-0 -1 -0 0 0 0 1:1.77327 2:1.0177799 3:0.31365201 4:1.05915 5:-2.1717701 6:-1.55238 7:-1.96417 8:1.87235 9:0.46435899 10:0.380431 11:0.0219563 12:0.055600502 
-0 -0 -0.01974366682737438 0 0 0 1:1.75565 2:0.98024797 3:0.20840099 4:1.24088 5:-2.1661799 6:-1.59717 7:-1.9664299 8:1.8635499 9:0.46388099 10:0.34812999 11:0.0193251 12:0.21513399 
-0.3257782090199258 -0 -0 0 0.3214763694715725 0 1:1.7629499 2:0.94013602 3:0.0685037 4:1.1547199 5:-2.1777401 6:-1.55224 7:-1.99413 8:1.8434 9:0.473196 10:0.375907 11:0.037188601 12:0.090744503 
-0 -0 -0 1 0 0 1:1.1514699 2:0.90453303 3:0.678069 4:1.20243 5:-2.0239 6:-1.51255 7:-2.0025101 8:1.80977 9:0.48660901 10:0.36504701 11:0.102419 12:0.118326 
-0 -0 -0 0.6105224292188329 0 0 1:1.13756 2:0.89979899 3:0.66709697 4:1.35941 5:-2.03286 6:-1.54317 7:-1.99682 8:1.78698 9:0.49012899 10:0.35241401 11:0.0140649 12:0.110081 
-0 -0 -1 0 0 0 1:1.5082901 2:0.89894497 3:0.39748999 4:1.4371001 5:-2.2318299 6:-1.6358 7:-2.0230401 8:1.88038 9:0.54310501 10:0.351556 11:0.0125041 12:0.069629401 
-0 -0 -1 0 0 0 1:1.5078599 2:0.96585298 3:0.368714 4:1.2796299 5:-2.24347 6:-1.6467299 7:-2.0415001 8:1.91325 9:0.54756099 10:0.353746 11:0.0216207 12:0.163633 
-0 -0 -1 0 0 0 1:1.4857301 2:0.95852298 3:0.412099 4:1.41353 5:-2.24596 6:-1.6610399 7:-2.04635 8:1.92758 9:0.545739 10:0.34468499 11:0.0132951 12:0.152961 
-0 -0 -1 0 0 0 1:1.5056 2:0.902753 3:0.37561399 4:1.45833 5:-2.24998 6:-1.65887 7:-2.05477 8:1.9321001 9:0.54478002 10:0.34384501 11:0.010942 12:0.047938801 
-0 -0 -1 0 0 0 1:1.5324399 2:0.87265801 3:0.41017401 4:1.50494 5:-2.23173 6:-1.60763 7:-2.0301001 8:1.91359 9:0.53956097 10:0.32432899 11:0.0119288 12:0.15065099 
-0.2109623224103683 -0 -1 0 0 0 1:1.68134 2:0.811759 3:0.35456401 4:1.58692 5:-2.21469 6:-1.6038001 7:-1.96676 8:1.99019 9:0.53487498 10:0.33458701 11:0.00689273 12:0.38810199 
-0 -0 -1 0 0 0 1:1.58786 2:0.98212099 3:0.38294399 4:1.31075 5:-2.22314 6:-1.6102901 7:-2.0085299 8:1.91712 9:0.53956401 10:0.33551601 11:0.0091832001 12:0.076479599 
-0 -0 -1 0 0 0 1:1.64202 2:0.93153501 3:0.451848 4:1.58025 5:-2.2197001 6:-1.61307 7:-1.98255 8:1.88743 9:0.538499 10:0.327811 11:0.0097168097 12:0.167129 
-0 -0 -1 0 0 0 1:1.66229 2:0.84608698 3:0.37654501 4:1.61868 5:-2.21209 6:-1.61716 7:-1.97785 8:1.8978699 9:0.53629398 10:0.329485 11:0.0126099 12:0.042041499 
-0 -0 -1 0 0 0 1:1.58377 2:0.954561 3:0.350712 4:1.43116 5:-2.2081399 6:-1.59986 7:-1.98869 8:1.9145 9:0.53355002 10:0.33197799 11:0.0199476 12:0.273141 
-0 -0 -1 0 0 0 1:1.36816 2:0.89846599 3:0.47029799 4:1.63504 5:-2.2051401 6:-1.64458 7:-2.06124 8:1.91092 9:0.53110999 10:0.32018399 11:0.0127504 12:0.216645 
-0 -0 -1 0 0 0 1:1.34187 2:0.86439502 3:0.52050197 4:1.53467 5:-2.20486 6:-1.6233701 7:-2.0638399 8:1.94331 9:0.53269798 10:0.328372 11:0.019572901 12:0.159554 
-0 -0 -1 0 0 0 1:1.38647 2:0.92955899 3:0.43013299 4:1.31262 5:-2.2095499 6:-1.60453 7:-2.05827 8:1.95393 9:0.53459698 10:0.33563399 11:0.0121469 12:0.184037 
-0 -0 -1 0 0 0 1:1.36148 2:0.99112999 3:0.45662299 4:1.24306 5:-2.1710899 6:-1.60638 7:-2.0387001 8:1.9209 9:0.52712601 10:0.33664 11:0.067903399 12:0.084083699 
-0 -0 -1 0 0 0 1:1.3041 2:0.96793002 3:0.56643999 4:1.37754 5:-2.13517 6:-1.60342 7:-2.0232999 8:1.86435 9:0.51499701 10:0.329216 11:0.069205202 12:0.148067 
-0 -0 -1 0 0 0 1:1.31838 2:0.95716798 3:0.61693501 4:1.39142 5:-2.0950401 6:-1.6119699 7:-1.99551 8:1.84579 9:0.49654999 10:0.32829401 11:0.033540901 12:0.028542999 
-0 -0 -0 1 0 0 1:1.37868 2:0.96998 3:0.48558 4:1.08732 5:-2.0754399 6:-1.50901 7:-2.0021 8:1.78732 9:0.49175 10:0.36548501 11:0.022862401 12:0.066131197 
-0 -0 -0 1 0 0 1:1.39667 2:0.99032998 3:0.484918 4:1.20558 5:-2.07408 6:-1.5241801 7:-2.0046 8:1.77835 9:0.486687 10:0.34026101 11:0.029802199 12:0.14164101 
-0 -0 -0 1 0 0 1:1.40297 2:1.00096 3:0.483302 4:1.31984 5:-2.07377 6:-1.53869 7:-2.0092599 8:1.78528 9:0.48438001 10:0.321518 11:0.0093706101 12:0.11135 
-0 -0 -1 0 0 0 1:1.3545099 2:0.99273098 3:0.46928599 4:1.27834 5:-2.07798 6:-1.61076 7:-2.00071 8:1.84231 9:0.492127 10:0.363199 11:0.0172222 12:0.26922101 
-0 -0 -1 0 0 0 1:1.30828 2:0.90206802 3:0.54685998 4:1.33908 5:-2.0828099 6:-1.6305 7:-2.0109601 8:1.8618701 9:0.48868999 10:0.37211099 11:0.022773599 12:0.071926102 
-0 -0 -0 1 0 0 1:1.37291 2:1.0882601 3:0.490224 4:0.815714 5:-2.08325 6:-1.57358 7:-1.9953099 8:1.86403 9:0.48856401 10:0.41044101 11:0.013786 12:0.074257001 
-0 -0 -0 0 0.2340712279588524 0.7587542366802117 1:1.36084 2:0.74050897 3:0.64889199 4:1.27073 5:-2.07757 6:-1.44428 7:-2.00577 8:1.7471 9:0.47200501 10:0.37342101 11:0.0132203 12:0.25472799 
-0 -0 -0 0 0.2434293597626535 0 1:1.35373 2:0.75978398 3:0.644476 4:1.1117001 5:-2.07866 6:-1.4402 7:-2.01232 8:1.76779 9:0.47204801 10:0.396552 11:0.0131124 12:0.153216 
-0 -0 -0 1 0 0 1:1.32927 2:0.87177998 3:0.67727703 4:1.29299 5:-2.0717499 6:-1.47436 7:-2.0189099 8:1.74244 9:0.46851099 10:0.34489301 11:0.0126811 12:0.200745 
-0 -0 -0 0.5061367644176772 0 0 1:1.3512501 2:0.991772 3:0.619798 4:0.94837397 5:-2.0634899 6:-1.5331399 7:-2.01144 8:1.83483 9:0.46877101 10:0.38879001 11:0.036079202 12:0.109663 
-0 -0 -0 1 0 0 1:1.35211 2:0.98962301 3:0.65683502 4:1.16046 5:-2.0743799 6:-1.55694 7:-2.0158601 8:1.7928801 9:0.46755099 10:0.36182001 11:0.0116979 12:0.115806 
-0 -0 -0 1 0 0 1:1.36104 2:0.99150699 3:0.64442998 4:1.1487 5:-2.07725 6:-1.54926 7:-2.0146599 8:1.79265 9:0.46496499 10:0.36019999 11:0.0088283699 12:0.130538 
-0 -0 -0 1 0 0 1:1.29945 2:1.01147 3:0.70736098 4:0.94050997 5:-2.0759799 6:-1.50146 7:-2.02458 8:1.8132 9:0.467392 10:0.38767201 11:0.016052101 12:0.019368401 
-0 -0 -0 1 0 0 1:1.35579 2:0.97743601 3:0.66680402 4:1.15992 5:-2.07985 6:-1.5137 7:-2.01687 8:1.7737 9:0.46548599 10:0.358329 11:0.0148108 12:0.133183 
-0 -0 -1 0 0 0 1:1.37219 2:0.94049299 3:0.72892702 4:1.50065 5:-2.10783 6:-1.5971 7:-1.9921 8:1.88139 9:0.458877 10:0.347657 11:0.0109286 12:0.15410499 
-0 -0 -1 0 0 0 1:1.29143 2:0.92792499 3:0.868698 4:1.20737 5:-2.13977 6:-1.66539 7:-2.0728099 8:1.93257 9:0.45471099 10:0.38033101 11:0.0164648 12:0.29780999 
-0 -0 -1 0 0 0 1:1.2709399 2:0.99997699 3:0.86923897 4:1.05668 5:-2.1443901 6:-1.70048 7:-2.0845599 8:1.98339 9:0.456099 10:0.39782599 11:0.019242 12:0.063235901 
-0 -0 -1 0 0 0 1:1.29425 2:1.05 3:0.873842 4:1.12243 5:-2.1493499 6:-1.71096 7:-2.08445 8:1.9671 9:0.45361999 10:0.376827 11:0.0072050402 12:0.113948 
-0 -0 -1 0 0 0 1:1.28241 2:0.97850698 3:0.92266297 4:1.3500201 5:-2.15137 6:-1.69763 7:-2.0824201 8:1.94617 9:0.45187101 10:0.35363501 11:0.0136487 12:0.173912 
-0 -0 -0.7140658455144829 0 0 0 1:1.30337 2:0.883717 3:0.94522798 4:1.3981 5:-2.14556 6:-1.64507 7:-2.06795 8:1.92321 9:0.44846201 10:0.35202301 11:0.02526 12:0.121491 
-0 -1 -0 0 0 0 1:1.3367701 2:0.97885603 3:0.91842198 4:1.1831501 5:-2.1380501 6:-1.5914299 7:-2.0492899 8:1.87359 9:0.44583899 10:0.36421201 11:0.0093008503 12:0.049183901 
-0.445346557266133 -0 -0 0 0 0 1:1.10882 2:0.93484497 3:1.0245301 4:1.3604701 5:-2.11132 6:-1.53641 7:-2.07884 8:1.8209701 9:0.44435599 10:0.33560699 11:0.0185831 12:0.152712 
-0 -0 -0 1 0 0 1:1.38077 2:0.97466701 3:0.821298 4:1.45285 5:-2.09552 6:-1.54347 7:-2.0229001 8:1.82539 9:0.44695401 10:0.32025999 11:0.0222668 12:0.084489003 
-0 -1 -0 1 0 0 1:1.43009 2:1.03133 3:0.78060102 4:1.30199 5:-2.0965199 6:-1.56929 7:-2.0239799 8:1.84238 9:0.44916201 10:0.326446 11:0.0146821 12:0.091948196 
-0 -1 -0 0.7648252656473623 0 0 1:1.45719 2:1.02865 3:0.76823699 4:1.23966 5:-2.1100299 6:-1.5498 7:-2.0320201 8:1.8447599 9:0.44471899 10:0.328035 11:0.016472399 12:0.103073 
-0 -1 -0 0 0 0 1:1.45095 2:1.03442 3:0.71749997 4:1.1352201 5:-2.10393 6:-1.55446 7:-2.0389299 8:1.85383 9:0.444536 10:0.344697 11:0.0121063 12:0.069028601 
-0 -1 -0 1 0 0 1:1.4358701 2:1.05504 3:0.75138801 4:1.2517 5:-2.10604 6:-1.56681 7:-2.04129 8:1.83939 9:0.44380999 10:0.32305101 11:0.0082854303 12:0.102574 
-0 -0 -0 1 0 0 1:1.42601 2:1.0463099 3:0.77485102 4:1.39469 5:-2.1039901 6:-1.56987 7:-2.03842 8:1.82542 9:0.444309 10:0.314549 11:0.0095832096 12:0.227685 
-0 -1 -0 1 0 0 1:1.45903 2:1.05487 3:0.73437297 4:1.32121 5:-2.1075599 6:-1.57449 7:-2.02933 8:1.83474 9:0.443712 10:0.31227401 11:0.0073912302 12:0.115951 
-0 -1 -0 1 0 0 1:1.45043 2:1.05046 3:0.76568502 4:1.3947099 5:-2.1117201 6:-1.5725 7:-2.02672 8:1.8254 9:0.441939 10:0.30998701 11:0.022730799 12:0.037034702 
-0 -1 -0 1 0 0 1:1.44489 2:1.0145 3:0.76231498 4:1.3327301 5:-2.1057799 6:-1.55011 7:-2.0231099 8:1.8276 9:0.44127601 10:0.33155999 11:0.0151528 12:0.108932 
-0 -1 -0 0 0 0 1:1.43385 2:0.99263698 3:0.76823801 4:1.14072 5:-2.1016901 6:-1.54898 7:-2.0239601 8:1.84795 9:0.44266501 10:0.352606 11:0.0052264901 12:0.17007001 
-0 -0.9982396904299377 -0 0 0 0 1:1.41214 2:1.00508 3:0.74413699 4:1.08548 5:-2.0942099 6:-1.57987 7:-2.0291901 8:1.86128 9:0.44544801 10:0.36752 11:0.026785601 12:0.0493991 
-0 -1 -0 0 0 0 1:1.46532 2:1.06037 3:0.75075299 4:1.12482 5:-2.1078701 6:-1.60079 7:-2.0232799 8:1.86578 9:0.44615999 10:0.350243 11:0.024901601 12:0.088357598 
-0 -1 -0 1 0 0 1:1.45786 2:1.07587 3:0.60422099 4:0.90004098 5:-2.0992501 6:-1.51536 7:-2.0079801 8:1.81284 9:0.46643701 10:0.366979 11:0.050309099 12:0.080800101 
-0 -1 -0 1 0 0 1:1.4602799 2:1.06973 3:0.631136 4:1.07868 5:-2.0823801 6:-1.5281 7:-2.0111499 8:1.7727799 9:0.45918801 10:0.333139 11:0.0227578 12:0.149645 
-0 -1 -0 1 0 0 1:1.48158 2:1.10734 3:0.65430403 4:1.18782 5:-2.0761099 6:-1.52554 7:-2.0078101 8:1.77003 9:0.45237401 10:0.330201 11:0.0141905 12:0.23456199 
-0 -1 -0 1 0 0 1:1.4923199 2:1.0189101 3:0.710545 4:1.2383 5:-2.07605 6:-1.52341 7:-2.0081 8:1.76262 9:0.44382 10:0.32915699 11:0.0089794798 12:0.082304202 
-0 -1 -0 1 0 0 1:1.46329 2:0.96573699 3:0.72466302 4:1.1138999 5:-2.0657401 6:-1.49912 7:-2.0058999 8:1.75739 9:0.44251001 10:0.34871301 11:0.023767499 12:0.26575199 
-0 -1 -0 1 0 0.1495544590529697 1:1.45275 2:1.15494 3:0.706478 4:0.77055502 5:-2.0534401 6:-1.49231 7:-2.0012801 8:1.79275 9:0.443252 10:0.37852299 11:0.0121687 12:0.13941801 
-0.3699281937836555 -1 -0 1 0.7230054250068949 1 1:1.44311 2:1.20276 3:0.70381403 4:0.74105501 5:-2.0555999 6:-1.49857 7:-2.0098 8:1.8006099 9:0.445169 10:0.37464601 11:0.013348 12:0.0279663 
-0 -0 -0 1 0 0 1:1.41619 2:1.06238 3:0.69946098 4:1.3029 5:-2.1052401 6:-1.55559 7:-2.0383501 8:1.7733901 9:0.45179299 10:0.328053 11:0.0198151 12:0.173995 
-0 -0 -0 1 0 0 1:1.32529 2:1.00753 3:0.83942199 4:1.4062001 5:-2.10761 6:-1.54182 7:-2.0559399 8:1.80618 9:0.45001999 10:0.31325299 11:0.0235104 12:0.071766801 
-0 -1 -0 -0 0 0 1:1.4231 2:1.19461 3:0.92891198 4:1.1558599 5:-1.68037 6:-1.23699 7:-1.56686 8:1.65491 9:0.54391402 10:0.247798 11:0.0150347 12:0.187776 
-0 -1 -0 -0 0 0 1:1.43022 2:1.13378 3:0.930969 4:1.1828901 5:-1.68301 6:-1.20314 7:-1.5657001 8:1.64101 9:0.54417998 10:0.25199199 11:0.0135206 12:0.127083 
-0 -1 -0 -0 0 0 1:1.44566 2:1.42897 3:0.92833102 4:1.02781 5:-1.69899 6:-1.39651 7:-1.56578 8:1.69503 9:0.54792899 10:0.235974 11:0.016056299 12:0.097373798 
-0 -1 -0 -0 0 0 1:1.4407099 2:1.48979 3:0.918845 4:1.05865 5:-1.70485 6:-1.4992501 7:-1.56981 8:1.68926 9:0.54993999 10:0.22390001 11:0.012225 12:0.027044499 
-0 -1 -0 -0 0 0 1:1.43793 2:1.28168 3:0.92125499 4:1.15071 5:-1.69548 6:-1.29671 7:-1.56725 8:1.6520801 9:0.54628801 10:0.235552 11:0.0186102 12:0.151476 
-0 -1 -0 -0 0 0 1:1.4171 2:1.1729 3:0.93839198 4:1.1641901 5:-1.6701 6:-1.21674 7:-1.5593899 8:1.6407 9:0.542602 10:0.24687301 11:0.0300001 12:0.0298413 
-0 -0 -0 -0 0 0.9974063245087555 1:1.35193 2:1.00191 3:0.904558 4:1.22637 5:-1.66781 6:-1.06461 7:-1.57261 8:1.6284699 9:0.56457698 10:0.259859 11:0.0082614999 12:0.056150701 
-0.07482429637214846 -1 -0 -0 1 1 1:1.3466901 2:1.43302 3:0.90947598 4:0.98006302 5:-1.6513799 6:1.31163 7:-1.5707901 8:1.69754 9:0.56312102 10:0.223758 11:0.029752901 12:0.066063203 
-0 -0 -0 -0 0 1 1:1.35858 2:1.1670901 3:0.89954799 4:1.23118 5:-1.67902 6:-1.0838799 7:-1.57823 8:1.6049401 9:0.56775099 10:0.235122 11:0.00779405 12:0.23586001 
-0 -1 -0 -0 1 1 1:1.3599 2:1.30097 3:0.90600401 4:1.02343 5:-1.67524 6:1.19739 7:-1.58064 8:1.67492 9:0.56544501 10:0.234014 11:0.0168653 12:0.167493 
-0 -1 -0 -0 0.06558099327190103 1 1:1.3769799 2:1.3724 3:0.936324 4:0.96524602 5:-1.66011 6:1.21928 7:-1.57604 8:1.67366 9:0.55513602 10:0.23727401 11:0.0101051 12:0.069517203 
-1 -1 -0 -0 1 1 1:1.38984 2:1.58038 3:0.94045699 4:0.91514701 5:-1.66118 6:1.3890899 7:-1.57294 8:1.69464 9:0.55291897 10:0.210437 11:0.015657799 12:0.046817299 
-0 -1 -0 -0 1 1 1:1.39168 2:1.50174 3:0.943681 4:0.93603897 5:-1.65671 6:1.3025 7:-1.5692199 8:1.69058 9:0.55154598 10:0.218123 11:0.0336258 12:0.094353698 
-0 -1 -0 -0 1 1 1:1.36403 2:1.6021 3:0.81062502 4:0.86741698 5:-1.73034 6:1.40202 7:-1.6102999 8:1.6987 9:0.57942897 10:0.21892001 11:0.054551098 12:0.14747301 
-0 -1 -0.1508884535975992 -1 0 0 1:1.4414901 2:1.26132 3:0.70355099 4:1.13732 5:-1.8448499 6:-1.2815599 7:-1.6592 8:1.64387 9:0.59485799 10:0.240391 11:0.046463098 12:0.052893199 
-0 -0 -1 -1 0 0 1:1.4308701 2:1.5396 3:0.67030001 4:1.14004 5:-1.86902 6:-1.5537601 7:-1.68229 8:1.64661 9:0.60086298 10:0.206738 11:0.0239316 12:0.152513 
-0 -0 -1 -1 0 0 1:1.4124 2:1.4741499 3:0.65257198 4:1.1170501 5:-1.87719 6:-1.42125 7:-1.69664 8:1.63798 9:0.60210502 10:0.209443 11:0.0202241 12:0.127139 
-0 -0 -0 -1 0 0 1:1.40311 2:1.35769 3:0.65692198 4:1.14704 5:-1.86865 6:-1.31925 7:-1.6982501 8:1.61523 9:0.59823197 10:0.224023 11:0.0252862 12:0.160722 
-0 -0 -1 -1 0 0 1:1.3697 2:1.58939 3:0.68632698 4:1.12055 5:-1.82651 6:-1.57706 7:-1.6848201 8:1.62526 9:0.59087503 10:0.20694999 11:0.0551004 12:0.092777699 
-0 -1 -0 -0 1 1 1:1.2451299 2:1.28828 3:0.83168697 4:1.02714 5:-1.67548 6:1.18683 7:-1.60683 8:1.6461999 9:0.58289599 10:0.24232499 11:0.0162929 12:0.062756799 
-0 -0 -1 -0 0 0 1:1.38741 2:1.71199 3:0.77013201 4:1.13959 5:-1.78136 6:-1.69256 7:-1.6399699 8:1.61674 9:0.589239 10:0.177439 11:0.063215502 12:0.298354 
-0 -0 -0 -1 0 0 1:1.3575701 2:1.27802 3:0.754951 4:1.16197 5:-1.78043 6:-1.26557 7:-1.65987 8:1.60258 9:0.59415501 10:0.249999 11:0.0109804 12:0.0549904 
-0 -0 -1 -0 0 0 1:1.3631001 2:1.67281 3:0.75773799 4:1.09188 5:-1.77891 6:-1.67821 7:-1.65949 8:1.64316 9:0.59265101 10:0.20056701 11:0.016091401 12:0.193464 
-0 -0 -1 -0 0 0 1:1.3612 2:1.69385 3:0.75742698 4:1.0811 5:-1.77811 6:-1.68612 7:-1.6597 8:1.64718 9:0.59165198 10:0.20269699 11:0.0135692 12:0.099640504 
-0.7328940835851641 -0 -1 -0 0 0 1:1.3562 2:1.83509 3:0.76369703 4:1.0640301 5:-1.7744 6:-1.8406301 7:-1.65973 8:1.64829 9:0.59130901 10:0.186869 11:0.0131866 12:0.31235501 
-0 -0 -1 -0 0 0 1:1.35193 2:1.82358 3:0.76525998 4:1.0348099 5:-1.77692 6:-1.80452 7:-1.66229 8:1.65105 9:0.58977598 10:0.184909 11:0.0212254 12:0.15092 
-0 -0 -1 -0 0 0 1:1.3573 2:1.82726 3:0.76659399 4:1.0336 5:-1.77639 6:-1.81071 7:-1.6611 8:1.65139 9:0.58902401 10:0.186244 11:0.0268807 12:0.094787203 
-0 -0 -1 -0 0 0 1:1.3573 2:1.82726 3:0.76659399 4:1.0336 5:-1.77639 6:-1.81071 7:-1.6611 8:1.65139 9:0.58902401 10:0.186244 11:0.0268807 12:0.094787203 
-0 -0 -1 -0 0 0 1:1.35604 2:1.76793 3:0.76661098 4:1.0402 5:-1.77569 6:-1.72343 7:-1.66159 8:1.64864 9:0.58865499 10:0.181124 11:0.020271501 12:0.080451697 
-0 -0 -1 -0 0 0 1:1.35604 2:1.76793 3:0.76661098 4:1.0402 5:-1.77569 6:-1.72343 7:-1.66159 8:1.64864 9:0.58865499 10:0.181124 11:0.020271501 12:0.080451697 
-0 -0 -1 -0 0 0 1:1.35604 2:1.76793 3:0.76661098 4:1.0402 5:-1.77569 6:-1.72343 7:-1.66159 8:1.64864 9:0.58865499 10:0.181124 11:0.020271501 12:0.080451697 
-0 -0 -0 -1 0 0 1:1.3663501 2:1.20662 3:0.76673198 4:1.21003 5:-1.78245 6:-1.20503 7:-1.6605901 8:1.56875 9:0.58951598 10:0.23675799 11:0.0094800601 12:0.147668 
-0 -0 -0 -1 0 0 1:1.3995 2:1.11184 3:0.81919903 4:1.2034 5:-1.77194 6:-1.15406 7:-1.62672 8:1.58724 9:0.57912803 10:0.237694 11:0.048147999 12:0.145634 
-0 -1 -0 -1 0 0 1:1.40824 2:1.10492 3:0.81971997 4:1.20356 5:-1.77818 6:-1.14447 7:-1.6285 8:1.58515 9:0.57893902 10:0.238758 11:0.046275102 12:0.102158 
-0 -1 -0 -1 0 0 1:1.40824 2:1.10492 3:0.81971997 4:1.20356 5:-1.77818 6:-1.14447 7:-1.6285 8:1.58515 9:0.57893902 10:0.238758 11:0.046275102 12:0.102158 
-0 -1 -0 -1 0 0 1:1.41195 2:1.11619 3:0.815745 4:1.20128 5:-1.78421 6:-1.14963 7:-1.63069 8:1.5835 9:0.57977599 10:0.237349 11:0.041942 12:0.0308019 
-0 -0.6794002747264455 -0 -1 0 0 1:1.42314 2:1.20415 3:0.808375 4:1.19452 5:-1.79747 6:-1.19428 7:-1.63529 8:1.5878299 9:0.58152902 10:0.23391899 11:0.055321801 12:0.105241 
-0 -0 -0 -1 0 0 1:1.42208 2:1.28578 3:0.79895997 4:1.18692 5:-1.80366 6:-1.2858599 7:-1.64106 8:1.59149 9:0.58238298 10:0.22251201 11:0.0599976 12:0.176568 
-0 -0 -0 -0.1383468225549911 0 0 1:1.42208 2:1.28578 3:0.79895997 4:1.18692 5:-1.80366 6:-1.2858599 7:-1.64106 8:1.59149 9:0.58238298 10:0.22251201 11:0.0599976 12:0.176568 
-0 -0.4834278772419999 -0 -0 0 0 1:1.43115 2:1.56267 3:0.781762 4:1.07763 5:-1.8211499 6:-1.5383101 7:-1.65149 8:1.6212699 9:0.58183497 10:0.21165 11:0.0538706 12:0.20393699 
-0 -1 -0 -0 0 0 1:1.4367 2:1.59945 3:0.78160602 4:1.0639499 5:-1.8237799 6:-1.56806 7:-1.65558 8:1.62324 9:0.58153301 10:0.21036001 11:0.051152099 12:0.169716 
-0 -1 -0 -0 0 0 1:1.43384 2:1.6166199 3:0.77633601 4:1.0608 5:-1.82599 6:-1.59062 7:-1.66145 8:1.62498 9:0.58184898 10:0.21092699 11:0.050365102 12:0.110365 
-0 -1 -0.09192670869521075 -0 0 0 1:1.42975 2:1.61331 3:0.778988 4:1.06082 5:-1.82526 6:-1.58746 7:-1.66144 8:1.62695 9:0.58116001 10:0.212277 11:0.0352065 12:0.047382802 
-0 -1 -1 -0.7431376367288813 0 0 1:1.42975 2:1.61331 3:0.778988 4:1.06082 5:-1.82526 6:-1.58746 7:-1.66144 8:1.62695 9:0.58116001 10:0.212277 11:0.0352065 12:0.047382802 
-0 -1 -0 -0 0 0 1:1.43257 2:1.5980099 3:0.77937102 4:1.07294 5:-1.82552 6:-1.5660599 7:-1.66157 8:1.62343 9:0.58121902 10:0.211018 11:0.033519801 12:0.050258599 
-0 -0 -0 -1 0 0 1:1.42393 2:1.33201 3:0.775433 4:1.16527 5:-1.8202 6:-1.30081 7:-1.65903 8:1.59159 9:0.58164799 10:0.224342 11:0.029852601 12:0.22940101 
-0 -0 -0 -1 0 0 1:1.42393 2:1.33201 3:0.775433 4:1.16527 5:-1.8202 6:-1.30081 7:-1.65903 8:1.59159 9:0.58164799 10:0.224342 11:0.029852601 12:0.22940101 
-0 -0 -0 -1 0 0 1:1.4212199 2:1.20096 3:0.76980197 4:1.17532 5:-1.81955 6:-1.15285 7:-1.65882 8:1.5900199 9:0.58297497 10:0.234119 11:0.035856899 12:0.32095301 
-0 -0 -0 -1 0 0 1:1.41633 2:1.16785 3:0.77035803 4:1.19379 5:-1.81796 6:-1.14732 7:-1.65953 8:1.58337 9:0.58323699 10:0.237919 11:0.0292487 12:0.207413 
-0 -1 -0 -1 0 0 1:1.42021 2:1.17061 3:0.77072603 4:1.19476 5:-1.81785 6:-1.15666 7:-1.66054 8:1.58471 9:0.58362597 10:0.23676801 11:0.0261769 12:0.139448 
-0 -1 -0 -1 0 0 1:1.42221 2:1.18358 3:0.77462101 4:1.1946501 5:-1.8185101 6:-1.1753 7:-1.66266 8:1.5857199 9:0.58393699 10:0.23440801 11:0.0177113 12:0.0375848 
-0 -1 -0 -1 0 0 1:1.42221 2:1.18358 3:0.77462101 4:1.1946501 5:-1.8185101 6:-1.1753 7:-1.66266 8:1.5857199 9:0.58393699 10:0.23440801 11:0.0177113 12:0.0375848 
-0 -1 -0 -1 0 0 1:1.41892 2:1.19626 3:0.771384 4:1.1932499 5:-1.81901 6:-1.1942 7:-1.66301 8:1.58688 9:0.58436298 10:0.23306 11:0.020599 12:0.0401708 
-0 -1 -0 -1 0 0 1:1.41892 2:1.19626 3:0.771384 4:1.1932499 5:-1.81901 6:-1.1942 7:-1.66301 8:1.58688 9:0.58436298 10:0.23306 11:0.020599 12:0.0401708 
-0 -0 -0 -1 0 0 1:1.41863 2:1.50559 3:0.76437199 4:1.15899 5:-1.82421 6:-1.51796 7:-1.66397 8:1.59816 9:0.58558297 10:0.21542899 11:0.038222101 12:0.28792399 
-0 -0 -0 -1 0 0 1:1.41863 2:1.50559 3:0.76437199 4:1.15899 5:-1.82421 6:-1.51796 7:-1.66397 8:1.59816 9:0.58558297 10:0.21542899 11:0.038222101 12:0.28792399 
-0 -0 -0.380959835527951 -1 0 0 1:1.41863 2:1.50559 3:0.76437199 4:1.15899 5:-1.82421 6:-1.51796 7:-1.66397 8:1.59816 9:0.58558297 10:0.21542899 11:0.038222101 12:0.28792399 
-0 -0 -1 -1 0 0 1:1.41157 2:1.59035 3:0.763174 4:1.14676 5:-1.82182 6:-1.63457 7:-1.66457 8:1.60368 9:0.58574402 10:0.21731 11:0.045846701 12:0.35882601 
-0 -0 -0 -1 0 0 1:1.39249 2:1.49994 3:0.76149398 4:1.14397 5:-1.8072701 6:-1.51055 7:-1.66273 8:1.60559 9:0.58539999 10:0.210545 11:0.0261545 12:0.140692 
-0 -0.5564885209664991 -0 -0 -0 0 1:1.4200701 2:1.3057801 3:0.38049901 4:0.61017698 5:-2.30337 6:2.2477701 7:-2.0615201 8:2.01194 9:0.591483 10:0.57941902 11:0.16478901 12:0.136562 
-0 -1 -0 -0 -0 0 1:1.4457999 2:1.30837 3:0.36146301 4:0.624623 5:-2.3116701 6:2.2582901 7:-2.0622799 8:2.0166299 9:0.590648 10:0.57747298 11:0.117985 12:0.104635 
-0 -1 -0 -0 -0 0 1:1.4457999 2:1.30837 3:0.36146301 4:0.624623 5:-2.3116701 6:2.2582901 7:-2.0622799 8:2.0166299 9:0.590648 10:0.57747298 11:0.117985 12:0.104635 
-0 -1 -0 -0 -0 0 1:1.43135 2:1.308 3:0.36160201 4:0.63249803 5:-2.3108399 6:2.26317 7:-2.0634699 8:2.0192499 9:0.59317601 10:0.57630301 11:0.077448599 12:0.071560398 
-0 -0 -0 -0 -0.7007705317797313 0 1:1.35943 2:1.26956 3:0.35837001 4:0.63095897 5:-2.2824099 6:2.2383201 7:-2.06306 8:2.01529 9:0.60275602 10:0.57984698 11:0.091603301 12:0.062785797 
-0 -0 -0 -0 -1 0 1:1.22879 2:1.27635 3:0.31927601 4:0.55427402 5:-2.2163899 6:2.16645 7:-2.05615 8:1.9636199 9:0.62132001 10:0.59388602 11:0.246068 12:0.208443 
-0 -1 -0 -0 -0 0.311608761480999 1:1.38371 2:1.26875 3:0.40008599 4:0.68911499 5:-2.3103199 6:2.2474401 7:-2.09322 8:2.02123 9:0.59318501 10:0.57526702 11:0.151998 12:0.15741301 
-0 -0 -0 -0 -1 0 1:1.26249 2:1.1531 3:0.34025201 4:0.66387498 5:-2.23912 6:2.18028 7:-2.08235 8:2.0109701 9:0.61572701 10:0.58618701 11:0.173215 12:0.13916799 
-0.4632431893915347 -1 -0.5106621928733714 -0.4755882272166255 -0 1 1:1.50791 2:1.23726 3:0.32633501 4:0.68720901 5:-2.31813 6:2.2357099 7:-2.0611999 8:2.0092599 9:0.57638502 10:0.57774401 11:0.053181 12:0.055824898 
-0 -1 -0 -0 -0 1 1:1.4845099 2:1.21667 3:0.30691901 4:0.63430899 5:-2.29707 6:2.21316 7:-2.0564301 8:2.0060501 9:0.57747197 10:0.58064699 11:0.086246803 12:0.0970667 
-0 -1 -0 -0 -1 1 1:1.40548 2:1.3121901 3:0.27087501 4:0.54630798 5:-2.23506 6:2.1515701 7:-2.0397301 8:1.93882 9:0.58338702 10:0.58648998 11:0.228265 12:0.226339 
-0 -0 -0 -0 -1 1 1:1.36733 2:1.25697 3:0.25090599 4:0.52199602 5:-2.2039599 6:2.1201 7:-2.03157 8:1.93591 9:0.586124 10:0.58984798 11:0.27941701 12:0.276456 
-0 -0.2881064527333601 -0 -0 -1 1 1:1.36733 2:1.25697 3:0.25090599 4:0.52199602 5:-2.2039599 6:2.1201 7:-2.03157 8:1.93591 9:0.586124 10:0.58984798 11:0.27941701 12:0.276456 
-0 -0 -0 -0 -0 0.7438208679579709 1:1.33579 2:1.19715 3:0.218428 4:0.50070101 5:-2.17256 6:2.08799 7:-2.0159199 8:1.93294 9:0.59291297 10:0.597808 11:0.32357001 12:0.311138 
-0 -0 -0 -0 -0.3648104614921697 0.7265638756367183 1:1.33579 2:1.19715 3:0.218428 4:0.50070101 5:-2.17256 6:2.08799 7:-2.0159199 8:1.93294 9:0.59291297 10:0.597808 11:0.32357001 12:0.311138 
-0.4944949227943477 -0 -0.562440892992214 -0.2211123528684366 -0 0 1:1.36403 2:1.28135 3:0.077674799 4:0.156139 5:-2.1016099 6:2.02527 7:-1.97758 8:1.94166 9:0.60971701 10:0.630265 11:0.46903801 12:0.44746399 
-0 -0 -0 -0.4833511851233764 -0 0 1:1.28907 2:1.12312 3:0.083822504 4:0.25264901 5:-2.08743 6:2.0239301 7:-1.97453 8:1.9323601 9:0.61997998 10:0.63977498 11:0.48649099 12:0.45932499 
-0.497090451402199 -0 -0.522086718712684 -0.3419306169915349 -0 0 1:0.75248402 2:0.85311103 3:0.171896 4:0.26824999 5:-2.10095 6:2.1057999 7:-2.0897701 8:2.0319901 9:0.73563701 10:0.72131699 11:0.157599 12:0.103198 
-0 -0 -0 -0 -1 -0 1:1.47068 2:1.49412 3:1.0429 4:0.964338 5:-1.4718601 6:1.45631 7:-1.6075701 8:1.56566 9:0.39607799 10:0.415921 11:0.147989 12:0.12762 
-0 -1 -1 -1 -1 -0 1:1.6547199 2:1.3198299 3:1.01899 4:0.97270298 5:-1.61702 6:1.32821 7:-1.61549 8:1.56157 9:0.395688 10:0.42247 11:0.145253 12:0.12697101 
-0 -1 -0 -0 -0 -0 1:1.7492599 2:1.40464 3:1.00071 4:0.93852198 5:-1.70079 6:1.3923301 7:-1.62353 8:1.57311 9:0.39107201 10:0.42010301 11:0.17652801 12:0.181191 
-0 -1 -0 -0 -0 -0 1:1.7888 2:1.37084 3:0.98782903 4:0.946926 5:-1.72769 6:1.3714 7:-1.63117 8:1.5685101 9:0.39148799 10:0.419817 11:0.14801501 12:0.139697 
-0 -1 -0 -0 -0 -1 1:1.8571 2:1.37459 3:0.86207902 4:0.94896698 5:-1.73877 6:1.37138 7:-1.6958899 8:1.56782 9:0.39181101 10:0.419402 11:0.101709 12:0.0823939 
-0 -1 -0.04130620481588512 -0.5820388399353073 -0.5306313956785329 -1 1:1.8571 2:1.37459 3:0.86207902 4:0.94896698 5:-1.73877 6:1.37138 7:-1.6958899 8:1.56782 9:0.39181101 10:0.419402 11:0.101709 12:0.0823939 
-0.1121041106484713 -1 -0 -0 -0 -1 1:1.84855 2:1.39195 3:0.85846198 4:0.95454502 5:-1.73185 6:1.3898799 7:-1.69824 8:1.56493 9:0.39286101 10:0.41688699 11:0.0590095 12:0.061055299 
-0 -1 -0 -0 -0 -0.740119447642317 1:1.80671 2:1.4319201 3:0.91332102 4:0.95502198 5:-1.70567 6:1.4248199 7:-1.67384 8:1.56489 9:0.394921 10:0.41452101 11:0.059836801 12:0.081839196 
-0 -1 -0 -0 -0 -0 1:1.7507499 2:1.4889801 3:0.95827299 4:0.95497799 5:-1.66236 6:1.46991 7:-1.65678 8:1.5650899 9:0.397769 10:0.41157201 11:0.104253 12:0.140425 
-0 -0 -0 -0 -0 -0.07339581211808022 1:1.37245 2:1.88184 3:1.035 4:0.95080298 5:-1.4105901 6:1.71569 7:-1.61316 8:1.5897599 9:0.404856 10:0.398397 11:0.19791301 12:0.190827 
-0 -0 -0 -0 -0 -0.9684782453152909 1:1.37245 2:1.88184 3:1.035 4:0.95080298 5:-1.4105901 6:1.71569 7:-1.61316 8:1.5897599 9:0.404856 10:0.398397 11:0.19791301 12:0.190827 
-0 -1 -0 -0 -0 -0 1:1.79647 2:1.42781 3:1.00289 4:0.92558199 5:-1.72212 6:1.3927701 7:-1.6285501 8:1.57494 9:0.386103 10:0.41651899 11:0.22015999 12:0.23996601 
-0 -1 -0 -0 -0 -0 1:1.82787 2:1.42588 3:0.95949399 4:0.92856199 5:-1.72956 6:1.39317 7:-1.65118 8:1.57318 9:0.38548401 10:0.416769 11:0.098149598 12:0.097625203 
-0 -1 -0 -0 -0 -0 1:1.82787 2:1.42588 3:0.95949399 4:0.92856199 5:-1.72956 6:1.39317 7:-1.65118 8:1.57318 9:0.38548401 10:0.416769 11:0.098149598 12:0.097625203 
-0 -1 -0 -0 -0 -0 1:1.82787 2:1.42588 3:0.95949399 4:0.92856199 5:-1.72956 6:1.39317 7:-1.65118 8:1.57318 9:0.38548401 10:0.416769 11:0.098149598 12:0.097625203 
-0 -0 -0 -0 -0 -1 1:1.5791 2:1.71138 3:0.99616802 4:0.93713701 5:-1.51537 6:1.62159 7:-1.64183 8:1.5705301 9:0.401463 10:0.40378001 11:0.28725901 12:0.31658199 
-0 -1 -0 -0 -0 -0 1:1.75361 2:1.43346 3:1.01043 4:0.96247703 5:-1.6694601 6:1.37963 7:-1.63994 8:1.5673 9:0.38823101 10:0.40855399 11:0.23724 12:0.21943 
-0 -1 -0 -0 -0 -1 1:1.91434 2:1.54076 3:0.78971499 4:0.91521603 5:-1.73139 6:1.4256099 7:-1.71524 8:1.57531 9:0.35670999 10:0.38563401 11:0.13199501 12:0.124283 
-0 -1 -0 -0 -0 -0 1:1.778 2:1.48081 3:0.93335599 4:0.94162798 5:-1.6368901 6:1.34273 7:-1.65569 8:1.55704 9:0.35785899 10:0.38275799 11:0.127472 12:0.214578 
-0 -1 -0 -0 -1 -0 1:1.73251 2:1.4932899 3:0.93684298 4:0.94782102 5:-1.59716 6:1.3626601 7:-1.65523 8:1.55509 9:0.362086 10:0.38158301 11:0.082442798 12:0.0858806 
-0 -0 -0 -0 -1 -0 1:1.67177 2:1.44533 3:1.04178 4:0.99645501 5:-1.58971 6:1.34988 7:-1.6205 8:1.54703 9:0.361523 10:0.38810301 11:0.116564 12:0.13434599 
-0 -0 -0 -0 -1 -0 1:1.61488 2:1.47934 3:1.0408 4:0.99589998 5:-1.54935 6:1.3857 7:-1.6202101 8:1.54715 9:0.36739799 10:0.387472 11:0.113433 12:0.109624 
-0.8038125758314997 -0 -0.05010942701020446 -0 -0 -0 1:1.22115 2:1.75458 3:1.05054 4:0.998272 5:-1.29216 6:1.6045099 7:-1.61598 8:1.55551 9:0.40392101 10:0.37996 11:0.142849 12:0.094861701 
-0 -0 -0 -0 -0.2676304847388563 -0 1:1.28763 2:1.69209 3:1.0526201 4:1.00019 5:-1.33973 6:1.55266 7:-1.61649 8:1.5556099 9:0.402435 10:0.387279 11:0.133821 12:0.114812 
-0 -0 -0 -0 -0.5811486699651388 -0 1:1.43273 2:1.5676 3:1.05437 4:1.00072 5:-1.4401799 6:1.44582 7:-1.61857 8:1.5537 9:0.39176601 10:0.394281 11:0.218217 12:0.22135 
-0 -0 -0 -0 -0.6179957741262273 -0 1:1.43273 2:1.5676 3:1.05437 4:1.00072 5:-1.4401799 6:1.44582 7:-1.61857 8:1.5537 9:0.39176601 10:0.394281 11:0.218217 12:0.22135 
-0 -1 -0 -0 -1 -0 1:1.70617 2:1.39613 3:1.05885 4:0.98744398 5:-1.62271 6:1.33635 7:-1.63176 8:1.55432 9:0.37785301 10:0.40673801 11:0.15191901 12:0.15525199 
-0 -1 -0 -0 -1 -0 1:1.7027299 2:1.41513 3:1.0591 4:0.98774701 5:-1.62378 6:1.35368 7:-1.63336 8:1.55319 9:0.38135299 10:0.40414101 11:0.094510198 12:0.104373 
-0 -0.9882254037603618 -0 -0 -0 -0 1:1.74482 2:1.49462 3:1.05523 4:0.97323298 5:-1.64297 6:1.36076 7:-1.63631 8:1.55905 9:0.36593899 10:0.383742 11:0.15229 12:0.176368 
-0 -1 -0 -0 -0 -0 1:1.77554 2:1.50658 3:1.06269 4:0.96379203 5:-1.6771801 6:1.37334 7:-1.6312799 8:1.55931 9:0.36082399 10:0.38380101 11:0.20279101 12:0.14523999 
-0 -1 -0 -0 -0 -0 1:1.7792701 2:1.55251 3:1.06315 4:0.96033001 5:-1.677 6:1.4086 7:-1.63318 8:1.56216 9:0.35907501 10:0.38078699 11:0.14508 12:0.111545 
-0 -1 -0 -0 -0 -0 1:1.79096 2:1.4832 3:1.03697 4:0.94658798 5:-1.66857 6:1.36072 7:-1.63314 8:1.56344 9:0.347684 10:0.382604 11:0.145815 12:0.204676 
-0 -1 -0 -0 -0 -0 1:1.80846 2:1.41298 3:0.99971902 4:0.97346902 5:-1.70605 6:1.3280801 7:-1.6263 8:1.55233 9:0.347442 10:0.39084601 11:0.25328201 12:0.30309701 
-0 -1 -0 -0 -0 -0 1:1.80846 2:1.41298 3:0.99971902 4:0.97346902 5:-1.70605 6:1.3280801 7:-1.6263 8:1.55233 9:0.347442 10:0.39084601 11:0.25328201 12:0.30309701 
-0 -1 -0 -0 -0 -0 1:1.82131 2:1.4187599 3:0.99284202 4:0.97283101 5:-1.71462 6:1.3334 7:-1.6284699 8:1.5532399 9:0.34862101 10:0.38887 11:0.164161 12:0.20215701 
-0 -1 -0 -0 -0 -0 1:1.7543 2:1.47613 3:0.99601698 4:0.97146499 5:-1.65547 6:1.38157 7:-1.62714 8:1.55474 9:0.35341999 10:0.38429001 11:0.148467 12:0.159768 
-0 -1 -0 -0 -0 -0 1:1.8402801 2:1.52068 3:1.00845 4:0.95169598 5:-1.7065901 6:1.32437 7:-1.62242 8:1.55941 9:0.31849599 10:0.358551 11:0.128755 12:0.160504 
-0 -1 -0 -0 -0 -0 1:1.8402801 2:1.52068 3:1.00845 4:0.95169598 5:-1.7065901 6:1.32437 7:-1.62242 8:1.55941 9:0.31849599 10:0.358551 11:0.128755 12:0.160504 
-0 -1 -0 -0 -0 -0 1:1.84805 2:1.53345 3:1.03333 4:0.96963799 5:-1.70032 6:1.33884 7:-1.61984 8:1.55867 9:0.31035399 10:0.35507399 11:0.236965 12:0.316585 
-0 -1 -0 -0 -0 -0 1:1.84805 2:1.53345 3:1.03333 4:0.96963799 5:-1.70032 6:1.33884 7:-1.61984 8:1.55867 9:0.31035399 10:0.35507399 11:0.236965 12:0.316585 
-0 -1 -0 -0 -0 -0 1:1.82541 2:1.5247 3:1.03134 4:0.97029001 5:-1.67902 6:1.34157 7:-1.6181 8:1.55917 9:0.310579 10:0.35814801 11:0.170552 12:0.209443 
-0 -1 -0 -0 -0 -0 1:1.82541 2:1.5247 3:1.03134 4:0.97029001 5:-1.67902 6:1.34157 7:-1.6181 8:1.55917 9:0.310579 10:0.35814801 11:0.170552 12:0.209443 
-0 -1 -0 -0 -0 -0 1:1.82541 2:1.5247 3:1.03134 4:0.97029001 5:-1.67902 6:1.34157 7:-1.6181 8:1.55917 9:0.310579 10:0.35814801 11:0.170552 12:0.209443 
-0.7782777047825264 -0 -0 -0 -0 -0 1:1.33766 2:1.9455 3:1.04682 4:0.96225899 5:-1.28714 6:1.71363 7:-1.61145 8:1.56871 9:0.34867901 10:0.34051001 11:0.45008999 12:0.44044799 
-0 -0 -0.7459561097141799 -0.3940720075990223 -0 -0 1:1.87222 2:1.51121 3:1.0118999 4:0.95628399 5:-1.71863 6:1.32017 7:-1.62275 8:1.569 9:0.31270099 10:0.361431 11:0.49002799 12:0.46593001 
-0 -1 -0 -0 -0 -0 1:1.81401 2:1.54635 3:1.01204 4:0.95660901 5:-1.66162 6:1.35873 7:-1.62283 8:1.56946 9:0.32071701 10:0.35904101 11:0.17753901 12:0.223142 
-0 -1 -0 -0 -0 -0 1:1.85618 2:1.5496 3:1.01352 4:0.97057003 5:-1.71108 6:1.39667 7:-1.64507 8:1.5736001 9:0.342253 10:0.38727999 11:0.248243 12:0.32133201 
-0 -1 -0 -0 -0 -0 1:1.89359 2:1.49576 3:1.00754 4:0.96524203 5:-1.73559 6:1.36481 7:-1.65207 8:1.56984 9:0.34136999 10:0.389658 11:0.177535 12:0.24965601 
-0 -1 -0 -0 -0 -0 1:1.80584 2:1.56148 3:1.01466 4:0.96338099 5:-1.66258 6:1.42493 7:-1.6499701 8:1.57165 9:0.34568501 10:0.38452801 11:0.17472599 12:0.208409 
